{"w1": [[2.416898103314594, -0.9863839695129591], [2.4230116081256505, 0.9978776561571621], [1.026150656628932, 2.4574065285329847], [1.7580589753734535, 0.08912396508037841], [-0.941730247834722, 2.318757080979381], [-1.7549529985156902, -0.0769027840408033], [0.018529851807223982, -1.749532298304057], [0.0686782817252562, 1.7309693045023087]], "b1": [[-0.0009777067372766437], [0.02375550989734133], [-0.01596994873797255], [-3.0761791636342766], [-0.0012147379076036064], [-3.064871637060298], [-3.0482371211783037], [-2.923827944938186]], "w2": [[4.4348276597497325, 3.9043788788761082, 5.925797415080655, -5.3880992331460416, 3.822633295361959, 0.8754006960440415, 0.3757000390192049, -5.653976931680788], [4.6539086423325235, 3.400991381740896, -2.9172789704813646, -5.3523217105245795, -5.661195249824996, 1.2950688412522364, -5.316008685384423, -1.2286432599160182], [-4.620371173314749, -4.734979457351522, 3.4744989491775726, 0.1543661268227679, 5.977249879719165, -5.832864737633289, -0.5493772174630513, -5.956760821277397], [-4.192417932908772, -5.440898586038809, -5.109144827118979, 0.13744124050244336, -3.4130291839747855, -5.402601841292837, -5.55958350936322, -0.2986390989891392], [7.546494632192672, 1.887542626285465, -0.4201610034273658, 3.927904874679238, 6.885159495813098, -1.8476764194417865, -2.158510155756546, 3.7320119181238818], [0.4198631056550478, 7.783056667193226, -7.709773174708851, 3.7006849247346247, -1.5925416496062823, -1.4044844206124487, 3.549749879677383, -1.7078302221333794], [-1.5863345741927888, -8.663220622961287, 8.817717912876944, -2.0847045491532326, 1.2788168399372168, 4.329522065505067, -0.8563546254264881, 3.043687741820277], [-7.966957751890614, -1.8004706580661112, -3.0009010632207938, -1.2714118323635175, -7.751399659244372, 3.827258831782527, 3.6022418439449657, -0.49228030577942666], [-5.788715957606667, 4.12838521599881, 0.6323216950019425, 2.013036317598378, 1.1276018824332317, -2.3048826081843163, -1.610366114456123, 7.981514034054076], [5.550100081137379, -5.6267443988673405, -0.46569255643715746, -2.0327595538245893, -0.44565188472734835, 1.5300285034683996, 7.463083048784305, -1.8861789026979863], [-1.9259024330091143, -1.0028926740790667, -6.067772909034853, -0.5697834465257737, 6.267854915110586, 7.240521720257165, 0.01695585298679009, -1.2797660000762683], [0.12424251078138657, 2.60250246860733, 6.379947816424735, 7.349425769199143, -7.197783405975018, -1.1085049354459509, -0.3013319287928547, 2.3869395888764897]], "b2": [[-0.0009777067372766437], [0.02375550989734133], [-0.01596994873797255], [-3.0761791636342766], [-0.0012147379076036064], [-3.064871637060298], [-3.0482371211783037], [-2.923827944938186]]}