{"w1": [[-3.231140022272621, 3.3529926475540215], [-1.8360930026690672, 1.1160013869810024], [-2.4166196162363294, 1.142374300618557], [-0.09008915925958, -2.813502484105471], [-1.3987610569304747, -3.966987971352638], [-0.01970725215916721, -3.1148395415280716], [-1.4491063712967702, -3.059613550629221], [-8.757490677734175, -4.354249061566988], [1.1653894269823424, -3.417209433279038], [-2.9970389941104534, -1.2291114658219384], [3.044530025892871, 9.763360905162378], [-4.405064292374384, -4.776935000065863], [-3.7667253874609443, -1.0330693350975058], [-7.794833820019598, 0.07060530119797159], [-4.006630350640493, -0.08474564006818512], [1.2209578957811587, -2.800971401438466], [-1.780674840231051, -2.372008101388113], [1.166107679739567, -3.7526369542329228], [4.059321516027862, 0.05772843131275063], [4.378722356058046, -1.7011615735698176], [1.0411650250916618, 3.402530024592301], [-6.182905449429801, -10.47871936218571], [1.843596118152053, 1.2043629552583617], [1.287233630736705, -7.303912272535505], [3.199599576011542, -0.19712141050858695], [-5.639624103365176, -6.1148543139959335], [0.8436360675337004, 2.4331035147997717], [-1.0182093574014737, 2.4181823363330466], [-7.786368920859999, -10.545818936804011], [-2.331658804398015, -2.298028582982498], [4.412127787215896, -7.008385553582763], [0.7881836878130352, 3.6152391559700674], [-0.81499449090804, 2.43479841576141], [-5.505574464287119, 5.769627380421767], [5.394043985704154, 2.2845063376373522], [-2.247883451488336, -1.0208027442269212], [-5.9574356498629655, -6.62779434748667], [-9.920530836436228, 2.5251150069473227], [0.3353142448425716, 4.560701736115798], [1.4034219506654777, 2.996259085175529], [2.660062839504126, -1.1563365922701025], [-7.805286565530979, -10.570498964294778], [3.1099901479418746, -1.6078047828769122], [-0.2414736058450208, -3.72194957100511], [2.352459465436746, 1.0893186333969158], [7.726693959356109, 8.180449235999824], [-7.8131394695088705, -10.580748880460451], [-1.7448160238215846, -3.232598921069926], [-9.096651011990382, -3.6037599909469518], [2.6029313100589726, 2.8426442715940374], [3.321558972828601, -3.723747107150993], [-7.140874930190157, -5.0715533479474], [13.031798714764227, 5.9362122507230755], [3.0453406207230236, -7.644903664710507], [-4.652538277662654, 4.8692379248407445], [2.0743419915891237, -1.202684693367248], [11.987243962203499, 7.698886648334036], [8.52049679620134, 1.7850113459981287], [-4.6641601032729625, -0.263028073124653], [-5.490346825139831, -11.801304719770194], [11.9354484663876, 7.664863574959355], [12.063660254023667, 7.749165080360551], [4.253854398801258, -1.0412813997990764], [-0.2810253892937524, -4.340704623970927], [-7.9743677986836214, 0.01953643021411238], [-4.564132974615919, 7.9720885546228635], [-2.195206833021147, -2.214799997581008], [-1.200519770044932, -3.2958537428072394], [11.624867777834027, 7.464616822812392], [0.20038244773414907, 4.322821725631641], [0.26935077749445313, 4.39600224302984], [-2.1614007506892268, 2.335552365665403], [3.8177843546863177, 4.058566798482167], [9.593323028155034, 9.86723383408156], [7.79125884779168, 8.266477495672135]], "b1": [[-3.2033933512293564], [-9.45467319577021], [6.0286159381880715], [9.677276715015955], [6.387759572086236], [14.725278664247904], [-12.586833610023078], [-3.3246844231496016], [8.872518447302564], [-14.305675299442822], [-2.586364173861802], [-7.022577589620126], [12.784249210254295], [-7.590915486110169], [11.253688558388886], [-13.377023354613055], [-11.510932524175999], [6.3696587370203455], [-2.728070598394068], [11.987313063032616], [9.874788453010206], [-3.5580101899281398], [-9.802923107448686], [-4.360449171610633], [7.971902284990809], [-4.87466419184713], [-11.265162237976856], [5.972573674883288], [-3.3233423258922725], [-15.977804434125803], [-2.496594374779133], [13.411600473453722], [-11.334125013662135], [-1.008641486288649], [16.5308531752635], [5.167530853387248], [-7.056349479743619], [-4.123137985481951], [9.419186887637034], [6.055307221595328], [5.182966095004929], [-3.333859125211273], [-1.365448213872389], [9.137189169628103], [5.367342281741308], [-7.9662209508642725], [-3.3382201307770054], [-17.1349118120861], [-4.206138020358747], [-5.912400223676801], [-5.45233095098489], [-3.8744102841690333], [-5.47705624525431], [-3.826672708217122], [16.287267765272475], [-10.769211358893749], [-3.671688063945772], [-3.0579518093208367], [9.936670522468102], [-3.5885426565818324], [-3.6544694553060615], [-3.6974084948896833], [15.142242095330705], [-2.568776114308403], [-3.8736891767220616], [-6.98999333373096], [-5.146376280984281], [8.24652862431899], [-3.5677951950283475], [-3.468682513057147], [12.099283005364384], [-4.523481776799463], [-5.631759032268798], [-2.61982358801483], [-5.045580323456605]], "w2": [0.43904884958934404, 3.0119050139858925, 0.857347498205352, 1.0368927972631492, 0.34793538950330716, 1.3649455072938201, 0.8112787231392036, 0.04205332570769522, 0.6663744284965019, 1.0133933049179342, 0.039184548518119006, 0.16458297991943, 0.28881269595389986, 0.0848913208792729, 0.4492899588642521, 1.4341398779528645, 0.6912653979518153, 0.4763375940570078, 0.3320251752842931, 0.34049504923299406, 0.3210142072465321, 0.021608448294715473, 2.9265449957964256, 0.048727779035670035, 0.6512826608915229, 0.1414234632427628, 2.2006777929286994, 0.9722939186373732, 0.08947065905463357, 0.6562100499765094, 0.07142874423375412, 0.47217202187716906, 2.3957680356523516, 0.1479054013343377, 0.2435987732956551, 1.0181175254163635, 0.001338201820044854, 0.06501136966495064, 0.27671331542120153, 0.4743212633072835, 0.6687139591362556, 0.0016706022387346598, 0.2885193835684375, 0.3512527347269439, 1.1498973919057118, 0.07048263600290577, -0.06733962007601496, 1.2202201937987422, 0.03323826324523459, 0.26470399040165266, 0.1294943846541881, 0.04455283435421495, 0.004713760893849482, 0.07084497245203537, 0.05492090331195229, 2.6384467407089973, 0.11098395455673375, 0.040691000158033425, 0.2660965865734398, 0.02293973945127586, -0.02764873677565063, -0.09960927275019625, 0.37137739152536925, 0.3005827670341631, 0.10363928869629346, 0.010421154966263203, 0.38207568008460424, 0.6351697782324881, 0.01948486861557799, 0.210360159969303, 0.4403069391345287, 0.4711870043795285, 0.22891320309954516, 0.0650435280053155, 0.09426353662874166], "b2": [[-3.2033933512293564], [-9.45467319577021], [6.0286159381880715], [9.677276715015955], [6.387759572086236], [14.725278664247904], [-12.586833610023078], [-3.3246844231496016], [8.872518447302564], [-14.305675299442822], [-2.586364173861802], [-7.022577589620126], [12.784249210254295], [-7.590915486110169], [11.253688558388886], [-13.377023354613055], [-11.510932524175999], [6.3696587370203455], [-2.728070598394068], [11.987313063032616], [9.874788453010206], [-3.5580101899281398], [-9.802923107448686], [-4.360449171610633], [7.971902284990809], [-4.87466419184713], [-11.265162237976856], [5.972573674883288], [-3.3233423258922725], [-15.977804434125803], [-2.496594374779133], [13.411600473453722], [-11.334125013662135], [-1.008641486288649], [16.5308531752635], [5.167530853387248], [-7.056349479743619], [-4.123137985481951], [9.419186887637034], [6.055307221595328], [5.182966095004929], [-3.333859125211273], [-1.365448213872389], [9.137189169628103], [5.367342281741308], [-7.9662209508642725], [-3.3382201307770054], [-17.1349118120861], [-4.206138020358747], [-5.912400223676801], [-5.45233095098489], [-3.8744102841690333], [-5.47705624525431], [-3.826672708217122], [16.287267765272475], [-10.769211358893749], [-3.671688063945772], [-3.0579518093208367], [9.936670522468102], [-3.5885426565818324], [-3.6544694553060615], [-3.6974084948896833], [15.142242095330705], [-2.568776114308403], [-3.8736891767220616], [-6.98999333373096], [-5.146376280984281], [8.24652862431899], [-3.5677951950283475], [-3.468682513057147], [12.099283005364384], [-4.523481776799463], [-5.631759032268798], [-2.61982358801483], [-5.045580323456605]]}